function [y1] = classifySpeechMfcc(x1)
%CLASSIFYSPEECHMFCC neural network simulation function.
%
% Generated by Neural Network Toolbox function genFunction, 12-Jan-2015 17:55:01.
% 
% [y1] = classifySpeechMfcc(x1) takes these arguments:
%   x = 39xQ matrix, input #1
% and returns:
%   y = 6xQ matrix, output #1
% where Q is the number of samples.

%#ok<*RPMT0>

  % ===== NEURAL NETWORK CONSTANTS =====
  
  % Input 1
  x1_step1_xoffset = [-7.20105504989624;-3.20916652679443;-6.39057970046997;-1.66898584365845;-2.43750095367432;-2.51932382583618;-2.37127923965454;-2.59309244155884;-1.20494854450226;-1.43613958358765;-1.05437302589417;-1.13735163211823;57.1576766967773;-0.76755028963089;-1.04907500743866;-0.846240818500519;-0.381947308778763;-0.415579408407211;-0.51171338558197;-0.411693245172501;-0.468406051397324;-0.305791825056076;-0.307563215494156;-0.28672069311142;-0.260709255933762;-1.55884671211243;-0.239835113286972;-0.336778819561005;-0.249071881175041;-0.216687053442001;-0.180953994393349;-0.139901235699654;-0.172545656561852;-0.137180343270302;-0.128785267472267;-0.13482192158699;-0.129109352827072;-0.113617792725563;-0.764989018440247];
  x1_step1_gain = [0.250117731749555;0.266227209914461;0.235359467432586;0.395185567821375;0.341587216475266;0.45837826235811;0.500777228967254;0.498290191953452;0.533100026827833;0.580779073750827;0.755454811532729;0.802003716694651;0.10658773206691;1.20509008788992;1.08718869563823;1.40265370437479;2.31573326704287;2.18964857193245;1.98612524053062;2.39624304435924;2.40840958657268;3.15232310322739;3.49120444534456;3.44260991081125;3.82725908918132;0.537069756706723;3.28993967851583;3.00286791940866;3.37235920670779;4.88650277175925;5.60176635172092;5.81881468539002;6.52886268759914;6.83128958678956;8.03071228035283;7.38690897811375;7.31003316584748;9.11206680883325;1.38564095702727];
  x1_step1_ymin = -1;
  
  % Layer 1
  b1 = [1.639486758895665;-1.5694503827182891;-1.050922632670608;-0.98635769315494382;-1.0362641970954607;-0.93122981528935489;0.81340409929339053;-0.56259818541995354;1.3386841048847631;-0.65801014898784582;0.76668781273277942;0.44746520499976805;0.64625047779746381;0.40253655101209035;-0.067313927641727403;-0.69570453752160422;0.36260291320810561;-0.30221548363088641;0.98912805290573003;0.62504160437488587;0.70739407764585693;-0.71433039315169455;-0.12780381667476479;1.1079924123178593;0.20613999514399198;-0.31649383573839074;0.036740501751520382;-0.64962343009393875;-0.32746485822766291;-0.10907834174112264;-0.25983270986962609;-0.029092218060849551;0.0015864877282117766;0.40283995344136453;-0.13507367060821868;0.034442720815067218;-0.28592663108876992;0.12994240527769074;-0.56452243701011129;-0.0093378977077819558;-0.63472268178774927;0.27149307810661893;-0.37151716473525448;-0.19076198275445624;0.54843835120036122;0.89531687378147518;0.02454608613785747;-0.88975586118579542;-0.61000299234025879;0.47613030578704957;-1.0284521799194777;1.4301619277399735;-0.77879880754600728;1.1609241847533285;-1.0859523614176594;-1.0398557095806018;-1.3338742666521983;1.5213057331884168;-1.66332173706779;-1.7371488575538685];
  IW1_1 = [-0.37194344770897192 0.38085352223544988 0.10532266090817413 -0.21360250924837179 0.3065969301392602 -0.14117298768533115 -0.19214002156271753 -0.18778408917474176 0.082634940103742671 -0.087770727719178362 0.12080314339194445 -0.42494862213078971 -0.43838839240735844 -0.36498435852701983 -0.06701764837672157 -0.13650188149764059 -0.27945805864884576 -0.24874331397525246 0.18292966532087288 -0.17242395169753011 -0.36102059883344112 0.03795823975284298 -0.14692114388303287 0.10048075698514218 0.05412689523286851 -0.36507056593706189 -0.50129107322329436 0.12339086570948177 0.065117295671718867 0.051283302330712641 0.17576523351878717 -0.10630706459948903 -0.16820213282157437 0.39211378415773401 0.26553879153416454 0.14970316432817704 -0.11592946674388772 0.16314192406717057 0.35439612551997818;0.2563813507785494 0.34308840478890251 0.057844341142422935 0.1234528133213974 0.038936753318432119 0.21548249311826059 0.17385847118831327 0.10646868000356982 0.22132530079540741 0.21933516864110617 -0.10435281515753687 0.25305747359490555 -0.28911220769187818 0.30177787548500884 -0.080718154603597117 -0.26384098510089632 -0.39125151518867252 -0.076635364745678433 -0.50845213229422304 -0.0062346634457420246 -0.20942547041510562 0.2249563434483734 -0.021319641084004373 0.22895685861039131 -0.50104990148074013 0.20581661022917885 -0.14990967060117399 -0.37372747518959726 0.43233829208384317 -0.29120975051756054 -0.18938970491642607 0.38168313569662038 0.27507021076369337 -0.16998067132387434 -0.13351760179836403 -0.12318570903909593 0.38362099869612959 0.4040337045716928 0.097755846542362163;0.68631022175801826 0.2271882079200804 -0.40330021779486291 -0.43838808495966947 0.16429932878276077 0.59983926715397573 0.18712314739275573 0.15316610066124706 -0.47804061996143615 -0.66580557855977895 0.362481408702782 0.56302359190902662 -0.12226424989933482 -0.32068097916653537 0.19050141247823188 0.16945341084548912 0.26823498733456724 -0.24315714627865828 0.18806056886516051 0.24267615215723481 -0.06344897638193002 -0.024386522644643548 0.20560565785869503 -0.073730143001490639 0.24968369862127954 0.2746427137931271 0.10936062701842095 0.076187454590997267 -0.5344084289045643 0.032028190165600837 0.28064774746803056 0.067028328541691357 -0.021426266342291365 -0.42955184799115537 -0.030604578296737191 -0.20035891349356455 -0.50105376913645783 0.4769195063013455 0.28553094925955574;0.22961995764883439 0.69235550807025481 0.3271363015189383 -0.33661104474284298 -1.0492374660883992 -0.3844418618960368 0.56431080068415174 0.45199626179346153 -0.21342993301516391 0.10109190169347462 -0.20988150524450544 0.59209407953186433 -0.32196347492725619 -0.353173501145019 -0.36405300709775379 0.066772849684495358 0.079776595388861615 0.19168550259973302 0.32286151492642812 0.030014875618901822 -0.055334752245734461 -0.28391045344723798 0.41503475431709635 -0.19075026375651993 0.24440965085640703 0.25435558244738116 0.0025623015439699554 0.32599963507337554 0.00437124442542902 -0.063846290432158392 0.25984028734634218 -0.263994807308783 0.32896118867616159 -0.084490036135601909 0.26528592699398451 0.31266752838605733 0.27756246264830681 0.31502435113956845 0.15645661557315244;-0.015921859636959884 -0.36774347080473491 -0.42156711201323105 0.8322863068088483 -0.256251093323204 0.039670265329099355 0.53856657105807337 0.17646276668304423 -0.24338969003016386 -0.033321692788889634 -0.039573141180001339 0.14179923909112818 -0.20011293028450336 0.056872010421418651 -0.1546057230953716 -0.019215051153761924 0.13902359210341922 0.4657646347450019 0.2774182717854668 -0.12554027125264897 -0.24498334224611859 -0.033948040545368992 0.21162049585698683 -0.10195290902814542 0.28136643362440539 -0.34302364297334048 -0.10443677704752484 -0.32211920044789855 -0.33690249214387602 0.56179037921267194 0.12095566332280344 -0.27575356099674447 0.29810006769879988 -0.1468578378460986 0.048454238699636484 0.12718674993291543 0.063083277747802841 -0.1148608583622536 0.1108734622587612;0.55105138054730263 0.058340286142238934 -0.62025881334839772 0.28487318302789905 -0.076494760500527045 -0.27161336056774504 -0.20482489250083935 0.51457789450677205 0.98641813233789299 0.60898014414266777 0.13206038370587303 0.070616784823208392 0.3310470779502333 -0.19389935441099027 0.21781483194103715 0.11266185914407419 0.055107108885416312 -0.37139603041776048 -0.38346274500614158 0.27579892884882917 -0.11476911144090968 0.098632724954788698 -0.33103463588355192 -0.031103714760387254 0.31724859039647607 -0.030114686921721048 -0.038528049094607338 -0.066272205458822453 0.08010335617963657 0.28900328308077899 0.10853703258863234 -0.19446433181157385 0.20314544085062849 -0.097995694682823778 0.32908467311674511 -0.41404395906045077 0.11833136447032079 0.14608694482778622 -0.062042237098502422;-0.71975522916782664 -0.13274582839746843 -0.6319065601337065 0.65667149133098479 0.52010019888303249 0.28597845198816585 0.0498864956786415 -1.0787017677341058 -0.073568801586154059 0.17935038031676548 0.025142888716178959 0.055068240636502494 0.31491776926075926 0.17383799632775468 0.05800223321785028 0.082289143496575443 -0.073632470632601255 0.067238321423765485 -0.2568477648934675 -0.19079235001019984 -0.33675007744893581 0.017221360188107382 0.21571660598932119 0.40533911664874428 -0.0012885935423042356 0.091158925018163514 -0.23878729225189679 -0.092326787473449329 -0.26466523217107341 0.65684980342935428 0.12279806502429078 0.77138034705633673 0.42535635292490392 0.20365371189046666 -0.16411346418631462 0.26449002160022728 0.06348849846135525 -0.28798313340618814 0.20127595503340301;0.14139858112646453 -0.30207060462385404 0.029071139138578561 0.063396420484143512 -1.0968913407419392 0.25010580216885786 0.50430967258830706 0.70135745658296522 -0.19240541612860437 -0.30337813073474179 0.10972079833979063 -0.44430674553981847 -0.3754922371778146 0.24018812411734769 -0.29474032714478993 0.0068302825173163304 -0.024463012257100288 -0.45080668621224662 0.20829916484663349 0.10026824192997574 0.24803242355367799 -0.15892715507176527 -0.12589638556661903 0.14924737455028908 -0.18933745718563705 -0.15114661644618138 -0.22214113977540481 -0.43431060802545868 -0.049593624185369951 0.10300881302820432 -0.64498221939747502 -0.51129329096212772 0.0045299344613098334 -0.26623802870490709 -0.16126873252018353 0.11405951150839763 -0.18888073918078821 -0.36176358720387625 -0.30260953108919991;-0.27397979835313813 -0.32669663369494678 -0.92325488149052559 0.52342266412685012 2.0613268908807405 0.24317918328518234 -1.2987415867626595 -1.2545702499061413 0.36861542366955541 0.13488749124596586 0.040424040449779042 -0.49315679660245526 -0.26320866264901338 -0.14571972225495189 -0.16769689602140814 0.05023423338484144 0.090468883192217214 0.17147848650993228 0.34645637151055814 0.17824750805066983 -0.19547748365347722 0.096268647394317092 -0.13749238247612439 0.175051546699584 -0.26087210785342035 -0.23554067528919653 0.17385049759195328 -0.28345837584381306 -0.23922718919043642 0.32077333852956602 0.2362786562495417 0.12147761849225751 -0.41531435291407831 -0.51077677885821893 0.40924582411196564 -0.24276520548873495 -0.33552582723520924 -0.46140962771825378 -0.24762180692553057;-0.18694045411763591 -0.55882525082175871 0.11156447152947706 0.4379248059406593 -0.36205552110355788 -0.17661400424325446 0.27395247144634671 0.15881194898014445 0.089950869905422046 0.49981600319559089 0.092979900309417871 -0.49170642728411595 0.12726521939599744 0.11907040457109026 -0.25645506186547762 -0.2181300388013499 -0.23265362307909576 0.40849898635805343 -0.18438608449357913 -0.028650399646021847 0.38502637628274683 0.17823398938824797 -0.34905863932232067 0.21151589864518322 -0.03342412517815866 -0.44667655501308745 0.031423606596734918 0.092906565629493496 0.16921384899465081 0.45132869015299087 -0.25847006633230274 0.21630928670607 0.087066920372715739 -0.31638445807338922 0.32691078188370909 0.37990362449949738 0.15301052325985462 -0.17848596700570041 -0.27803166662856832;-1.0547664303177799 -0.45652066174843114 -0.33405422435671533 0.26899623340872209 0.23229091600150922 0.6622402691074698 0.98863713664148856 -1.2376170967286646 -0.7233300568902068 -0.23229139295145254 0.031208702697755136 -0.14753510627609018 0.33598682274577368 -0.18541978436611301 -0.38233608624219506 -0.41220867370782732 0.098577647970567187 -0.39727979288692045 -0.2783043095970692 -0.066561285941953527 -0.014507440209959215 0.28109858356585588 0.21431388160187226 -0.24137731984465938 0.18089734664375992 -0.0061201148330550514 -0.10435785668496228 -0.29853937737328484 0.29997299451771947 0.26031535454709531 0.1228853860921514 0.082687128238095375 0.24891422422620935 -0.061822973600556864 -0.31205373839482514 -0.15862624204564874 -0.46360634889692409 0.27800796940881151 0.26654575093637428;-0.15431717618711771 -0.47601971584530584 -0.44279109853643384 -0.21338540771231143 0.52013299651768619 0.0038515962003631693 0.35046963541940757 0.20650645492470376 0.11035426974213096 -0.41689433199456538 0.17315036445687762 0.69261574419732541 0.71413955825092623 0.22709748069381192 -0.1642628508430157 -0.15073179271978529 0.22471300794383958 0.43471758443955533 0.12368248548647286 0.45739577434943179 -0.37854415072141906 -0.20299870393642144 -0.078785806960492311 0.059482006040655247 0.14256690001654845 -0.22564084859676636 0.40021176424786292 0.18455187026990361 -0.34363014585626739 -0.30273031214423241 -0.26459222274070371 0.36669332627619938 0.27320784788782249 -0.14870283198200426 -0.044503142094710249 -0.21866723302886285 -0.12434505829486393 -0.32649016296356886 0.46843645386222488;-0.40331474747668061 0.052213008168372155 0.059037431648538793 -0.57964474569052982 -0.10487690562227973 0.63966753821868971 0.32317788715795542 0.30041130999173787 -0.015188988316799965 -0.2587871086100651 0.14978205524807345 0.28795960553588662 0.2048337573426609 0.43751936628043908 0.018594315335823643 -0.079117223362530159 0.23004507034992638 -0.45454213966586421 -0.072808549467303404 -0.10270426890482635 -0.070539528362045523 0.11518782349926154 -0.12417630807769676 -0.070005683580386321 -0.29188186888559575 -0.39574348052636149 0.26774826373135491 0.44443416460944907 -0.10780332269960229 -0.14253851130890491 0.30943485102037149 0.51215810610639678 0.35582118004371183 0.15600719157417633 0.0085307225391312233 -0.32954713598366048 -0.2167259568028552 0.401315816427113 -0.32010012421908618;0.091004411152334513 0.39972083095937977 -0.41549890331072403 -0.52493074546697294 0.26070460649180721 -0.29541169372399556 0.20445239589979536 0.44085128457574241 0.056728774975955278 -0.39525218870024864 -0.41726609609800913 0.15602575049333331 -0.27966950121690998 0.42290981478037626 0.16468639267601148 0.11281662413954203 0.076893681391546162 0.21130772030461131 0.097070163992104413 0.25959591121955633 0.13932419808486854 0.3516491861219786 -0.050857175608985589 -0.23341102261868465 0.21941759437528269 0.46215030976226551 -0.10911910248106979 0.37249660755860209 -0.30902540980730736 -0.0088941023132828971 0.096411830785257543 -0.11738951814641692 -0.0058378733358972236 0.60534750498794032 -0.39692309521893643 -0.29006251441024966 0.47369344399176799 0.086697044923433136 -0.092102876508787734;0.45334507276180858 -0.10977060096038289 0.58802758902035679 -0.16405150665718304 -0.0038398007120060938 -1.0706034637856845 -1.0023103204740291 0.28089926920501418 0.54073195717537015 0.64034561063487005 -0.37675826970221721 -0.74307381692888275 -1.0195313919238098 -0.38556720866224042 0.26891587583338095 0.41955123188060833 0.10532852916206838 0.095368664385282118 -0.096656672237118837 0.20155044203664627 0.15060313564125513 0.36914334078447691 -0.12597776640537905 0.11996485566497656 0.037926452528165469 -0.23645301353230394 -0.14971550686584717 0.07682813522765522 0.11929034759559384 0.052248032456013047 -0.38544486046092857 -0.70923217136267747 -0.4347241473688 -0.26149745922231449 0.25312735658795826 -0.0029811329099195226 -0.40667389445837387 0.17744332690355072 0.090375011209956641;0.90734450302790493 0.76062885852290962 -0.13396233087401457 -1.1155180146023718 0.16842380402855667 -0.38743095763040636 -0.040507796560947801 0.3611236658999738 0.030032650947938888 0.086203476739887958 0.88948708917780583 0.50740652816851706 -0.71942207599739494 -0.0091393683504504102 -0.34190655107534912 0.50333981098223579 0.29971838049729627 0.059537731367672139 -0.27819055880500487 0.43659036534411216 0.16918832734867453 0.13232197155083414 0.16268237207322103 0.21480478271981521 -0.21173397448638381 0.42695471138090368 0.13922277301098507 0.049782791578401146 0.02513707958418614 -0.10170132081335019 -0.68815471931535221 -0.038269526717647384 0.063201662372681724 -0.11553443799761919 0.50590117266287271 -0.025686271288367282 0.39043115502916181 -0.090763491299479804 -0.29508818668209452;-0.25481638774218496 0.24403672765611648 0.69772483486384673 -0.18914214463852558 0.25294539848831527 -0.44956342395142002 -0.51220521235036021 -0.50329715378705553 -0.56797006350201507 -0.057768821892404287 -0.072375758363121545 -0.11963426598964955 -0.68958623027154098 -0.13578919745837906 0.23717107779302221 -0.17590984632871706 0.026943387483889927 0.11280551833702773 0.25632566366665421 -0.39007463415125232 0.17775208575455784 -0.15850020713529395 -0.093137472679015149 -0.12537843631357637 0.34501460230550912 0.31558164261910543 -0.35703315431043614 0.19120101649322746 -0.084455714485553987 0.44475871348543838 -0.24637028939941225 0.42444406499376891 -0.3673296988953072 -0.36193420339090382 -0.021558348057004621 -0.35859643783395334 0.21248071601412757 0.028634186402617695 0.03669556497035438;0.84153674313772808 -0.39031907796982207 -0.36691383817631917 -0.87701057308923247 0.085149455480418704 0.019790642998955166 -0.17259693210605817 0.75094889207380389 -0.03568535690172682 0.059631208303366684 0.15956258498324316 -0.30100463661303178 -0.29891247741590926 0.15814369429768135 -0.29712095307099284 -0.084769686114582687 -0.29747623113648125 0.29483731557924564 0.23099052800858938 -0.015583363338490442 0.3078618258997059 0.063594616547089644 -0.0032729058663240017 0.2851555952365511 0.03171032834546491 -0.49179227971883821 -0.2080827895377598 -0.21773049966166264 -0.46394150753139884 0.21047634591920927 -0.054716177717749517 -0.0016506993914556433 -0.075063295438636324 0.099925703798885587 0.15990394016303366 -0.18194029202326295 0.1244091180908857 0.24433541530011477 0.073203672770199846;-0.81196151854725362 -0.023207882311571521 -0.042581214808823854 0.35573268702175481 0.91472260063684052 0.44373352313612996 -0.27515971986628457 -1.9444962072780503 -1.397055018125847 -0.11799212527816919 -0.47174608848232025 0.055406399163463495 -0.11707979827186675 -0.013661537966020883 0.17414362070775175 0.26272337032174747 0.17639674958292845 -0.25741542665543915 0.28069774004679326 -0.14349350983374431 -0.17913763861501805 -0.24946111568975571 -0.1276259783268951 0.027233253660138138 -0.019268220858052902 0.020593936425960725 -0.60627659203280104 0.26227154507024325 0.18591848441261413 0.48273683797881412 0.19459077407772005 0.47107757950570789 -0.082335741214586838 -0.95961721070295303 -0.13810388562756404 -0.076216415206901672 0.077439067260142949 0.039163775672534012 -0.21122026123578252;-0.053562828238020735 -0.63692725745471868 0.12494695357932871 0.49138089041275473 0.94846804505365234 0.14694457657828416 -1.1877287315356815 -1.178244165763491 0.19929317882963019 0.69558562837145654 -0.31442110146563024 -0.55125374456166887 -0.19990631955862623 0.081726182151074189 -0.15047484814946599 0.22252419703320023 0.090550642718662311 -0.43011392628038592 -0.17583289685968989 -0.063041140346939473 -0.21549317886004091 -0.15262479113746477 -0.2028057902091368 -0.11028453810786264 0.21428413298046028 0.14672511335855121 0.064757440469537728 -0.079271337682333853 0.35076349025723069 0.56166831339548573 -0.19458062223964198 -0.36040793955783124 -0.31089421643123782 -0.59563821932507377 0.27162669596499389 0.52456622892924787 -0.33375099566571209 -0.46634444325527252 -0.2165869669279579;-0.3379307012382109 -0.33652709684484505 -0.15740786428352352 0.52687268866144543 0.077053757486911567 0.39946731367587074 -0.38166718192293214 0.34072494457897623 -0.12793019907923386 0.15808449886278908 -0.552017578583892 -0.30574874672192781 -0.27838437795836923 -0.096966942976752096 -0.23293001410401756 0.10207767239906471 0.016326758971542146 -0.2878921656263585 -0.24641455278133775 -0.2812155371510397 -0.58530533373524973 0.040858447325202704 0.027370298833828539 -0.078044883448568261 0.043964209457066396 0.073565557768260056 -0.17242329618632057 -0.029543136399232769 0.039309603825203127 -0.28445737346984884 0.2505269792518165 0.2238739534690424 0.44505710578294883 0.33373073012741439 -0.50138753329196162 0.039769702904870391 -0.15044220518630913 0.27247732980112388 0.2298099597069222;-0.26430411953760646 0.37654492537810597 0.085805699393670595 0.36329191641750491 0.063112058595308593 0.15485184959646353 0.64233983169059827 -0.85113504691050523 -0.60255991668435993 -0.12463500113921613 0.1329735216419636 0.34928802969330031 -0.029039616937161672 -0.21498845403258812 -0.37703213886461479 0.28328762141773667 0.36296313947698688 -0.09751306548291612 -0.52458685634919167 0.034264820792925428 -0.058334864314764763 0.30373362607862564 0.31628847763813117 -0.30373501623362975 0.043722378097762492 0.10550143410236372 0.12971973788684216 -0.097613664516336962 -0.27592844813754935 -0.43029575642710904 -0.030859059220190308 0.078848253594005505 0.33437322923387874 0.0050665233264921301 0.07070034916454826 -0.11563499790389402 0.27363595556395537 -0.0681283040882531 0.13315810809676085;-0.21650523580038558 0.21446282169029535 0.29449323246621006 0.65331809458458034 0.24133002846379101 0.10863363474996579 -0.27744940754974767 -1.2284713211123639 0.14093338943331077 0.11301989205016821 0.28260744675891736 -0.28175129540176669 0.33222544273370197 -0.44400368303669896 -0.22692743375474431 -0.33305988993107033 -0.3147945120551317 -0.3628734222156208 -0.031186406930459671 0.10057788947707993 0.30637224122560741 0.24510840610196025 0.13074117142591951 0.17695355372881527 0.27035834332746678 -0.22922634513673093 -0.40589385583779225 -0.35061624102757472 -0.3483205805189985 0.072025858764428685 0.4003475689805423 -0.05083924902556889 0.42755405686468656 0.084100036871570111 0.43091451943687914 0.12505973668303455 0.21323939061915925 -0.053631758560250195 0.16685269736829506;-0.35975819198582948 -0.46792545670598173 -0.60519806301011925 0.77422711340112871 1.2512509932958398 0.033055385626312793 -0.19781609705989042 -0.53677494233424505 0.46784232669508735 0.057066319768530646 -0.4878191557584225 -0.68410744093190146 0.24843245559755173 -0.036139618473418379 -0.040729312741186907 0.32592662045136533 0.081045630135250013 -0.27472797592152171 -0.16990984942248075 0.26518132261094302 0.28303177996773515 -0.21282267788388684 -0.054226083120748225 0.11250376622810047 -0.05956997658206753 0.065612831228087864 -0.64447647742540681 -0.49383714382543042 -0.06954090157705177 0.3471133508869324 0.37004954901116949 -0.23301453336912045 -0.12804522927590778 -0.33882876049654204 -0.12088181897655637 0.4318047338256456 -0.3817158870302933 0.24625508689819461 0.11964388343091908;-0.066187625780026099 0.62170029122681558 0.27444540550945495 0.63331006292198311 -0.34676308101488768 -0.57743020262244571 -0.12894031802262565 -0.23080517409924198 0.12789550105725134 0.17474897799655251 -0.11083170420126189 -0.50036676610455655 -0.19832436875755644 -0.25797761241814465 -0.16315417011412434 -0.11338425746802387 0.090148470139326239 0.039590010169700048 0.37927280640919997 0.094844403563361934 0.37102322686319639 0.36179353410952675 0.23542730759567346 -0.056391626750445512 0.090924256857526212 -0.21186189386596643 -0.022491010920907387 0.48652603012893009 0.13250059820603796 0.050489701144803389 -0.22945975195370205 0.18612377112882136 -0.034162055115903235 0.38992766948139523 -0.13436941492814125 -0.40827678369917392 0.13440300633468513 -0.10124997894917689 0.33723146611258425;0.053042436276205085 -0.57180743901777287 -0.25592431672674781 -0.72417913615695761 -0.15391464340429456 0.54849080331207967 0.8766936703234236 0.54676802714644079 0.29847544856795077 -0.51998001803195781 -0.1727139428358461 0.64521054804398126 0.086118776530394375 0.028106141219271956 -0.41041970562916452 -0.25682239337114915 -0.02394273372404835 0.46023409270236038 -0.39333244208680351 -0.38182249721218658 0.017399679926133223 -0.11890580730939533 -0.21187619215530437 0.24600537578192574 0.15105740307592866 -0.067931798686487868 0.069695654724299366 0.29897872210573462 -0.19478946523920637 0.15235154365081205 -0.44288390793633869 0.30562434915139963 -0.24757994893147273 -0.045164241463905755 -0.064275114245686063 0.34042206125753033 0.049609718526350016 -0.095416157272859251 -0.11254334902850321;-0.65258885267410549 0.22861522947784937 1.0907302263220879 0.50766766502086291 -0.058189271638052945 0.51357220814835669 -0.03117041006029854 -0.58253158046259157 -0.34993226942408689 0.19855659982207174 -0.2502169833091068 -0.2554249658263254 0.4029737637446304 -0.055213123177744128 -0.10654395901002102 -0.306313937701781 -0.28071780562046494 -0.20660696549060331 -0.37312600107401628 -0.25443986799501012 -0.30320247036181974 0.4517210574381606 -0.41811565362714548 0.24127274028641277 -0.080874677125130065 0.23722937272720204 0.063727353154051661 0.13674498131784255 0.36468637620962485 0.29606800879922557 -0.25830061816533723 0.27457481486284357 0.38716289451486363 -0.16942278927296286 -0.18906764156405267 0.22782333501680596 0.12856380403704135 -0.071872844583743614 -0.015110795042459388;0.51767539976010379 0.10856214880777881 -0.24202365186947031 -1.2767886744869807 -0.68523031971885773 0.092994704130983305 0.49797005181679938 1.2089413215723814 -0.17595662647565169 -0.50126977995166133 -0.29106341450056289 0.80728863159247477 -0.093159894346539401 -0.0073336072277139681 0.12613192529907391 0.2249392521178176 -0.19094560514521133 0.010829057273326635 0.0011217410928647188 -0.069981087859020158 0.19500247704483648 0.396498587292692 -0.22092703153932863 0.21840866145174814 -0.16786670809638748 0.38286185072535994 0.58985956235398462 0.30529943069404664 -0.084004760688954919 -0.4719014958923432 -0.63736188742204225 0.2736800172705578 0.13875512745813603 0.70637413654525616 -0.034782313684140503 -0.42915997647106785 -0.16352052996326377 0.28802237585616985 0.34674440669434919;0.41835389770126769 0.27102445499356392 -0.82760796933206826 -0.79640703951202374 -0.76014310805125718 0.58063723797829214 0.55757757109733108 1.3611008978983037 0.041971186793847662 -0.5297909139767063 0.043519919338793497 0.16598994822263344 0.20957446772267865 0.24388871842586815 -0.11183225651958605 -0.21008595178974865 -0.079093025657476071 0.63598983270141107 0.13695788291729094 -0.18699997003888688 0.21681855078021414 0.23263920254762643 -0.12543929627566158 0.18115572369039296 0.04612324062418735 0.000363308527136251 0.17053157969650309 -0.18340059573892681 -0.17309076912721691 -0.26610243037262665 -0.21618057740588531 -0.27391930829267924 0.4693964393062664 0.2574704828149203 0.28649931692239267 -0.27106916536763559 -0.19573842128331181 -0.12951784741844583 -0.095055447902426621;-1.0842589714003281 0.1499761325309332 0.64928674195792557 0.99271265262517772 -0.9083985899581013 0.037266533406180857 0.46361012604671153 -0.8832087929811836 -0.51506362901004377 0.090893029577698334 -0.37846007429038153 0.22362823710384677 0.56798381998264302 0.0090098848641622757 -0.01313187601107503 -0.43505000320492759 -0.29561942750405612 0.20332781512244558 -0.22325922733186346 -0.052953554623907148 -0.23381921212498816 0.095400934925352981 -0.16759490940805313 -0.38494281863237029 0.25913508419491749 -0.070493852689010331 -0.6988896270308016 0.097989345400211939 0.45705574651744818 0.43011212267871479 -0.25892742878025282 0.42149742284095837 0.514666414917897 0.079349953672251422 -0.33155951945265921 -0.060972499394293465 -0.39904985118510222 0.13885784906230569 -0.25063153210143746;0.1798413554419363 -0.42296647023619327 -0.59561669700807751 -0.33470769463142747 0.65541615991414737 0.66748126028741495 0.22498093781951986 -0.22378117414735615 -0.66850710231214627 -0.68383299591841928 -0.17560205982785027 0.49319746684283994 -0.37535876750824676 -0.2873993494071489 -0.24157400231820825 0.19705097490401219 0.1007864307926782 0.16337788499117789 -0.34178316558294858 0.27936224364295764 0.1620248708834926 -0.14290238613256295 -0.12403520654234414 -0.20072966567489622 -0.10668501414759796 0.12319035663390085 0.21171320495707119 0.18353622346666312 0.31989567149627463 -0.3866061736128707 0.52707896407972732 0.23852819961365307 0.40310667920427801 0.089061817435169444 -0.099622225351562677 0.0045127407077414968 0.14562920629841605 0.34525362312609692 0.33237080369666744;-0.31979913144478811 -0.017088287623096644 1.6149177152347514 0.24687812735773529 -0.91649023000690466 -0.21174710143859254 0.24242106825455731 -0.43699151382208423 -0.78923836395069369 -0.39110868198015186 -0.80561630647153648 -0.41869685923281008 -0.56043187865849864 0.22909133281284316 -0.023783824510920482 -0.0022369152771246912 0.11823156813528327 0.090280222383297692 -0.010807477645304812 -0.4429928794604443 0.21037525410094671 0.16536261830675927 -0.59820094097321452 -0.049077645160229902 -0.16368492128724585 0.32171716260697919 -0.075085943379104111 -0.044862548114481926 0.38211620240443989 0.40800421258185254 0.029767276773115331 0.11613225142098949 -0.11649118838210026 0.14135231515318827 -0.19314787171880421 -0.12706291294513997 -0.17835013541056108 -0.20093478504074153 -0.5770653409668417;0.10914645825626879 0.35161024493581811 -0.82224081542400684 0.12424940864641887 0.69162053195948625 0.057772242844758674 -0.32688460824964943 -0.43644062474534867 0.26951555214770656 -0.15203378512818957 0.20580852772515579 0.46050735400702336 -0.23975170360186815 -0.25506303338841518 -0.16315137760390669 0.04683444974140466 0.13897953259209461 0.20477799832081506 -0.21935836886441401 0.31052052554456128 0.34819371951388478 0.14263754394353378 0.051965799254094835 0.040771442512522259 -0.06255911780117375 0.29818741554803307 0.35976562372641341 0.22431814675839487 0.029772170579883003 -0.2386513194107098 0.50613215259766531 0.18212838130190445 -0.36311532403305541 -0.12568224126427127 0.10453144723512429 0.17628369271183922 0.17135554902977346 -0.022685303245818661 -0.057075298808955309;-0.026402274293682932 -0.71424640521735439 -1.3871203741780558 -0.1407967006481915 1.0807635827499031 0.461497839447086 0.034391118718818316 0.39845719355553122 1.3815554795209422 0.23372238515551413 -0.32173089632466506 0.076130498779084635 0.085527925972829849 -0.29561731644137362 0.15723948104395463 0.42669754760803436 0.090779138951246577 0.16743882392430626 0.042177701376394844 0.18496292335052383 0.48509310771416081 -0.014889752113376769 -0.1197779337568894 -0.37269288082373553 -0.31158422340553976 -0.002887398824737074 -0.15750492660881973 -0.49231015630516828 -0.17841630809898834 -0.11378541683343309 0.22041767760825517 0.19844119698684901 0.02708824420174754 0.43048226826422131 0.61880220573350386 0.18976119361460461 -0.05196016727476422 -0.0060057707917430328 0.30534056178601082;-0.3773763455461237 0.12415013225026394 -0.37506954500851586 0.22461807882874468 -0.1950305527824312 0.46726524764059474 0.6473838167328777 -0.086233475179490954 -0.021371332109527776 0.078169476994146392 0.078678073308791729 0.13537152875461697 0.39087940377009378 -0.28193563213438538 0.12549446789680649 -0.20708619562484176 -0.041518851116269656 0.21902705318882465 0.36794454215807193 0.33745252088838124 0.020999787282124555 0.33928468656434674 -0.28448191622216473 -0.24003828424995574 -0.16943319095469239 -0.20582510164091888 -0.10895484243875386 -0.18747856207160249 -0.47627301398279953 -0.15899969427696986 -0.20347820839494893 -0.21472211223592039 -0.11652336244189214 -0.1630862889214782 0.52357926361749263 0.052591082051938833 0.4118626269723023 0.35442400519446488 -0.18796115622525614;-0.61181646159395875 0.24822634078294276 0.87438818938802954 0.67147509265420513 0.57292799287249896 0.31523380967080811 0.71641670025119897 -1.0523236081300524 -1.3066755874226308 -0.76439749668171975 0.13587492047061159 0.26076025713900086 0.4892249962977297 0.03938333141979556 0.085353412600128201 0.28133063109392625 -0.28089300871144463 -0.35025967345200454 -0.122461139418144 -0.57638584566887585 0.058135552302277148 0.20497607413075464 0.12112703941793612 0.20282841236831431 0.36428141407926162 0.44931412981114061 -0.045968987012953072 0.0034320364020384688 0.34199785007705807 0.12081258121687265 -0.019069352746821106 0.32771894193442863 -0.031185664013696546 -0.62559206935567302 0.18068028208384093 -0.17736830388157626 -0.08359529594290277 -0.21210802655446243 -0.0018658965639255795;-0.27697086464898441 -0.074926441086150986 0.53074733647405581 -0.35277996087359109 -0.24195798959616341 -0.1037963158129411 0.088987743561519797 0.44732847007932691 -0.47179193146266019 -0.43214449346202594 -0.77866602057829803 -0.062031037003141831 0.041478293692515378 -0.39567216420375578 0.0031681676013079578 -0.08994920580119066 0.67183822019424055 -0.37990063906985172 -0.28299922985897802 -0.089896956046346316 -0.30562946318856155 0.2094019616830313 0.20847419219797936 -0.37467986416728671 -0.14870316945418049 -0.18804846729167171 0.033756120875745962 -0.49470946005456978 0.071150592442578639 0.10687331811282791 -0.081891649237391242 0.059946352784852393 -0.14117362678649412 -0.032301432048477491 -0.10175370128055407 -0.39046242447289181 -0.071495225237441132 -0.1506820092137294 0.26841960640678209;0.11186431211177572 0.29061486500063449 0.76452446625122639 -0.13935733075133422 -0.41008983017586764 -0.064662348872351297 -0.64038918159746683 -0.42135747191505252 0.019126141898697126 -0.18379545596009469 0.49704812959622446 0.28907494933153732 -0.1074542957868747 -0.018448635136924303 -0.29899757490484724 0.04541566042590247 -0.20305209453032921 0.095875256609499693 -0.14501349545370068 -0.19806955238615498 -0.19346969691642599 -0.17299871499683997 0.3558562141043326 0.31662687306044029 -0.019992620239843887 0.46546125212207584 0.21749552205073186 0.38060272544878027 0.060157962192362031 -0.37016056055756696 0.057007376060384696 0.30483829442687671 -0.4573377189197908 0.06744187471109743 -0.034587149046137328 -0.093647747190922781 -0.21813342776932934 -0.45503153767640864 -0.18619908993914436;0.48682594580183197 0.55270367272767373 0.012593145396967577 -0.84543141297021551 0.19244590970865691 -0.63509586506561255 -0.30754256289806231 0.14393086046040865 -0.083631057268075376 -0.51774392991381646 0.28622804400752105 -0.15970176664163122 -0.90185227423421221 -0.29968099120683417 0.28188965574154123 -0.38132610851172044 0.26318901619764112 -0.16451879287571497 -0.32665965219136123 0.24401740516214857 0.33934847070452018 0.44410166917811233 0.064689726221617255 -0.37817964758614891 -0.048679267087329621 -0.47853297048533255 0.20232057133657055 0.18143536670333524 -0.043510020631901535 -0.41743013604863755 -0.27820516595703193 0.1224032021356324 0.033277428013697458 0.28150958810024701 0.18211874445866727 -0.19192487155863147 -0.033095221918614241 0.072788724569026186 -0.072514595582922906;-0.5372639466523198 -0.53941855393258342 0.40999530012232871 -0.10912013781512303 -2.6114122766976142 -0.80752656505605724 0.57923873810836379 1.0307790941082029 0.28991425382476976 0.42695368883588353 -0.31331877937354141 -0.87458063808548248 0.94602713477990985 -0.090682773593679419 -0.099519151936773631 0.014833003935596912 0.061521924236190975 0.065263159651763727 -0.053613425851547505 -0.011936351184802836 -0.27819548727380528 0.11653149608140537 0.32645914403397969 0.15009329647402792 -0.28991452258512879 0.25837205040254035 0.29620015481077783 0.1281000008935812 0.18956495787461788 -0.30708713589250602 -0.64188954448247182 0.1555235283920845 0.32070547529399063 0.43453775646131371 0.060905037031396686 -0.1497891908347016 -0.16207709030519393 -0.005372363804148959 0.49400687621025624;-0.31174799147917992 0.34723427895715647 -0.030268648175120906 -0.25830507044976247 -0.34881662195690954 -0.24627882128474909 -0.13920695317811532 0.63067934294653183 -0.23128758386830894 0.17673923305092287 -0.26400431529617746 -0.45943095026323932 0.04998739835830722 0.34901100539521296 -0.37675766730906479 0.17767854015001627 -0.047035382142081528 0.098684894749252267 -0.012902605686961208 0.026281217000494426 0.013676839067437319 -0.28221721515422532 -0.014313543580765403 0.086022101856545991 -0.29072351655979495 0.23325514517034027 -0.14104072393183198 0.3507675629617486 0.54249607463838756 -0.40143177577134909 0.078850666985282231 -0.037252109988554272 -0.0034350493950552302 0.0061652417857145994 -0.051230441943531907 0.10181296758260683 0.2752453034227037 0.30205128387525559 -0.20983308288406879;0.26511052055299417 -0.3976522258979257 0.48637725849444408 -0.56964003278529862 -1.2947444283400438 0.28808505680391711 0.16715508082154334 0.97280246716167185 -0.33224433129074721 -0.11064229704609926 0.040132397011875771 -0.33597182239018741 -0.15413661862289962 -0.084138599288599153 -0.12214713260584606 -0.41318728422859036 -0.18546933735617074 0.078384829314665297 0.46576331638299495 0.13719048805303904 -0.45319577946444706 0.29808061147096593 -0.086424620024336027 -0.076504889604694981 -0.21881175989008878 -0.29065802997808887 0.13710300089331809 0.29437900038135195 -0.0063544776476470314 -0.32032650259089057 0.035628231509101146 -0.012558758641854795 -0.095307395454573951 0.49639886717531667 0.054870624131549355 -0.08166572275016562 0.060221182967264128 -0.32467852324667462 -0.051123715911502686;0.52569978932244632 -0.14552899596395141 -0.86412396337445452 -1.2584924233308112 -0.67143904078964489 0.086706755097087584 -0.10444187626943116 1.6369346448556559 0.30509611719806179 0.037123852192379549 0.18381924331928629 0.38336542759962228 -0.38869318856138335 0.35144583366907844 -0.36583089558268239 -0.099308937608738379 0.22162762408646511 0.09769733724115913 0.25382311897702675 0.0085354085732588653 -0.44023104923234796 0.34215027659893249 -0.10951057358660439 0.080714125371034742 -0.094185455949753263 -0.0091648339541200129 0.23853158781541361 0.40223391618367837 0.1778970522009945 -0.1899625858352896 -0.70807390559712535 0.21608644325745624 0.033157372973680807 0.70761425570454395 0.025450294100456846 0.012170192276677684 0.020903172328952592 -0.063581934643149013 -0.24741092353476335;1.2199360225764568 0.55897627352594292 -0.5840581074075718 -0.92476882958708839 0.89710408009504694 -0.29655287052534529 -0.5874741347029756 -0.10375834931692528 -0.3123835678195237 -0.2651729060578264 0.11228063411753936 0.47524281068203733 -0.21525807278123307 0.51563255259707108 -0.35431704574554718 -0.18846048350740333 -0.29001383900759403 -0.038820850085616615 -0.023226540566997449 0.044606422631667524 0.067422086493802325 0.25923566083358651 0.13623379406149416 -0.26504556494482573 -0.022526967457739452 -0.12964418112453541 0.074076488362049234 -0.048180355589631102 -0.13431662029234717 -0.33436946636880771 0.18145391545070938 -0.29616738657549041 -0.2391277837329871 0.45331369773529107 0.15315679863664572 0.092731857929857248 0.18395534911129893 0.12009053251613301 -0.22671007347983652;0.092842259842252514 0.20548369745987799 -0.10618760081493514 0.18777191902763818 -1.1150917450594398 -0.060758144040913287 0.42072028966246244 0.41091297136087773 0.04677449146789131 -0.093064440745833893 -0.45359352809160458 -0.32800594250534448 0.25032163796539297 -0.010387291878778548 0.023516473555439669 -0.011039466738291814 -0.27492871514494449 0.090872635443916008 0.34674099242846262 0.34553236690942479 -0.17075783519849122 -0.1770784836414194 -0.038452630503390414 0.10761632619010462 -0.14231244907348967 -0.1459211257753523 0.43124811375354222 0.05300362311619302 0.47757214292961342 -0.18459369106767703 -0.037476040287584056 0.4764743550659849 0.3261973263888347 -0.085983457250777912 0.013770994385459237 0.18288203638855099 0.26192567022635443 -0.28280390494386437 0.19513133649019185;-0.94951790004711023 -1.1169766125720986 -0.35851652537096584 1.098893076288225 0.7645620320982528 0.61512142107491552 0.39471217114606066 -0.3373743543515339 -0.017622792749575292 0.45374938016763977 -0.45147868787459444 -0.38991530904480465 0.71293905936203461 0.042131139332791917 -0.25527509853977032 -0.092882320660119699 0.19548326018722989 0.20113863631033579 -0.3259310879110488 -0.21865932818701606 0.24912572497200433 0.016853081593934255 -0.36612580744818762 0.032060568476305971 -0.2182742535767217 -0.070155966429247818 -0.30941762947806806 -0.086780507506318438 0.010169671638103818 0.05085739036295845 0.3604275447150514 0.20791961456215902 0.47233622585069346 0.081975853198121035 0.26199030413963825 0.46087879727674635 -0.10209176557611725 -0.17671206618271956 0.6670727812870193;-0.48069839798969682 -0.38926022812910632 -0.25471303463432471 0.41066540026869142 0.34557613671886234 0.82131659191268169 0.35814239304745349 -0.17049361466310681 0.19227745369528065 0.20203839564274925 -0.20318516135068607 0.12471791945943454 0.5481764156677611 0.058179368641069235 0.43555448231613264 0.18953390599765971 -0.20919860187699144 -0.23028778258923238 -0.069576579188930926 0.47970257645571424 0.30409354505519837 -0.10186750739350917 0.37631844431973072 -0.35808784120642095 -0.27835314474983691 -0.16666755723848767 -0.11918247022117157 -0.53760594660313887 -0.45353518523966307 0.60664856041982451 0.52255035253868309 -0.35981119439009912 0.13990817031442926 0.077488068677744659 -0.23860020035308596 -0.21242830841463128 -0.40476558537809015 -0.29452586727966384 0.22692897510436968;-0.46030453600385379 -0.18894917872238751 0.41194408079906575 -0.0054981248590894368 0.10193851778062489 -0.41154404437772502 -0.085747060515499449 0.066190916261234009 0.26793437649227425 -0.27390633302918338 -0.045319052945811567 0.07646511008850719 -0.32938154629395217 -0.065430534717284619 -0.10931444529151353 -0.30903258510187548 0.13770612268192903 0.21884430127565538 0.38666513358024585 -0.26757686622393223 0.14626112938468372 -0.29357935409327951 -0.40347341543538157 -0.38871863817244895 -0.036557886649820022 -0.38993662874695206 0.39959057682441101 -0.33517724639090635 0.20749760486571209 -0.045796189694309458 -0.13932171874391741 0.17772017593993933 0.033312818632195942 -0.22805674312684796 -0.069670364744779195 -0.24622287514106453 -0.23921798375602038 0.18598305120187297 -0.17270995408823242;-0.55602879487836443 0.29820282486715266 0.24926238917077032 0.30756579211519169 -1.2082721753861732 0.24474902051238928 0.65107165502549058 0.25703303049814502 -0.27666298515216603 0.42393749795734548 -0.43172114102775172 -0.20484221629965355 -0.27405588605315179 0.060170687468582132 0.12834772509623119 -0.17522675301537327 -0.068559257395008233 0.40020384329004521 0.40931773692885298 0.098316522120707711 -0.4400101946461577 -0.014222070774192495 -0.13900922038005725 -0.24879407187746796 0.1929392447995234 -0.095608976392661596 -0.44202980169872447 -0.17485312619913668 0.024661125833437374 0.34387264282573954 -0.47389347155593514 -0.34420418056541935 0.017288677496562786 0.095249321839718779 0.22650727541372567 -0.0021484567180358738 -0.34100217116323989 0.14479342869474102 0.18955112319675393;0.53373300713526384 0.23491901857407352 0.41691976666899472 0.03081600693360189 0.10196140467646091 -0.46436448092670157 -0.49659733903153647 -0.39822620342736226 0.18445877086138054 0.13684801458811671 0.53250151974653814 0.088166359407774134 -0.12460828115690063 -0.2950214330652165 -0.28217110393655387 -0.56161971716201298 0.1502447797685767 -0.22499924707134733 0.19547179212574389 0.079881957973076664 -0.44909575921537986 -0.10610156352293185 0.28589126450017971 -0.40976069378890001 -0.14785758131751836 -0.060146920907900192 -0.17377168571158103 0.12474093914845467 0.49194992412600608 0.014809150530800457 0.025817885952530064 -0.35048240151049104 -0.06066522255081884 -0.18189957925332087 -0.046763974033786779 0.38486285164249251 0.4469537904449189 -0.50972552461521825 0.13128405707312632;-0.24301711595827394 0.4065632599644623 0.35755855527859987 0.25638863911622878 0.38994799691665893 -0.18305000126811338 0.13485502213049533 -0.28894022009954456 -0.2527887108767044 0.52650217978760561 -0.3896442952495569 -0.39620089282812282 -0.11731078249025842 0.37530687178354 0.018233414246037069 0.38275500471820123 -0.50195939208249696 0.35297980113538918 0.17799393651110151 0.12465030237576262 0.17654989911993668 0.26143857821127198 -0.093709340116589865 -0.094081929686606058 0.29068058530768859 -0.29138590677096965 -0.25520829391681094 0.42337505444535944 -0.056617362566817694 -0.022807101127148798 0.26654386304098771 0.16078771100582046 0.23815262306131202 -0.14576220662109635 0.18188333813513863 0.26948573075421889 0.30535780819183328 0.21081720256090003 -0.042072821043926262;0.13679624254583847 -0.06679271255195833 0.28238907762983617 0.30408263115112394 0.51799380897282576 -0.29689709072652043 0.013654336485511332 -0.19846331000743875 -0.058298115661393764 0.064850405145458673 -0.2356078390128187 0.14810909034420833 0.16709211153777509 -0.30542411803898251 -0.1812782194437513 0.19201550816830096 0.26061722844159901 -0.16875799387576346 -0.12305102327427929 -0.16578034529813457 -0.072579609154591648 -0.16090519218355423 0.013876947316226892 0.20809759037897838 -0.36330859432440982 -0.31418809689190258 0.282358537013216 0.21653177465718398 -0.35814411712748839 0.39972607536901922 -0.086553465155754655 -0.24269284818588255 0.1959098217175258 0.095212938183955251 0.42568260888469017 -0.058946199809196825 0.13335098465702247 0.17635908832105587 0.40038010793852291;-0.074643162119783349 -0.36802746619026289 -0.19040018465340022 -0.40644913003217498 0.29264393308919195 0.19099944796086879 0.47209609007004788 0.020824673601201184 0.19339384201057852 -0.017842800256992628 -0.60665074121604168 0.046498372787903849 0.15737729270452355 -0.23610255614395884 0.35261955945023915 0.44418535260039071 0.21558929579974892 0.3075252519962634 0.4612591370184112 0.11073273674100598 0.37627083283651069 0.33932956548133281 0.37391403246132898 0.087608640100670224 -0.10224150409014525 -0.41329925422536529 -0.24602678299009251 -0.26397137462514231 -0.0062860000467130379 0.27631070296505533 0.42939716337029998 -0.089052172124059942 -0.19935413790999729 -0.39230052464926429 0.37646086576353932 -0.13156950968182046 -0.088918847169570991 -0.36414562660445915 -0.21600019394699102;-0.21062743309971529 -0.47641726337709023 0.12909278566670596 0.64227230354094811 0.32699672935149549 0.10994813185735618 -0.18072161167390921 -0.26141181872865843 -0.042785708591670163 0.46064795206607551 -0.43529152694781859 -0.21709011182724489 0.47122466617138881 0.22931339968843467 0.23967325951851015 -0.4005964680271365 0.12778520629085327 0.012654288452225906 -0.34348455010465445 0.26054030089087588 0.35603963977234193 0.32992860181938588 0.1674409312674546 -0.065428277250614897 -0.48666858967345727 0.48021010223350474 -0.25817699518998111 -0.26839301542760313 0.34259643957176461 0.17893320819104755 0.50318399325304275 0.0020883131647599818 0.28298289458927889 0.15807795656155649 0.080044977284154856 -0.25769095551095905 -0.27128759786140039 -0.27984952663554696 -0.2472089243332001;-0.27620179021479602 -0.41238962466422957 -0.00094145193548098808 0.30689715656514827 -0.30918964542291555 -0.2631179525804993 0.337803266314807 0.083328073461818086 -0.38355910431972218 -0.18012448166092085 -0.022895761062547287 -0.2983973188999231 -0.26605984621927775 -0.048504975979517626 -0.17937648796126859 0.35275243591584893 0.29421244637926169 -0.073651887330251811 0.19614785708449795 -0.35783595797207396 -0.19560398137807761 -0.081398047270265131 0.36563456515676251 0.26237641006163032 -0.2222834622584422 0.34625717117773908 -0.33673287129128171 0.29570406470012689 -0.31144274592942611 0.26124475948215442 0.39369309689429727 -0.075818283816381324 -0.33452486913955892 0.37488542831373867 -0.36720225461760048 0.23827254887495639 0.061966736310586461 -0.26375248476007662 -0.12854411446795488;-0.48904027445722681 0.24851605687352812 -0.18805924447303263 0.68312190328930877 0.72268666809861981 0.30915446408934771 -0.37933934421091459 -0.17681264180764117 -0.12184623849249615 0.039108046689146837 0.081913525106321217 0.036153620441497621 -0.43568797809152687 0.1726330380884103 0.23089876587499153 0.41255683303921226 -0.19814078568734603 -0.28443659723153913 0.10027411683349431 -0.30552454726074058 0.48703162695124624 -0.078073096537087244 -0.27297772328861519 -0.42811436853893259 -0.48039404193020441 0.26330201391254959 -0.20386516926802906 0.3207549567782742 -0.1346131779473419 0.54111880437421445 -0.11063990090812864 -0.0093326377508187227 -0.10359221097368655 -0.36932092474288208 -0.28713533962371052 0.040090403938450314 0.23287287264268261 0.29992972849975114 -0.093004192418062029;-0.11903299424817217 0.091078461528113927 -0.11669268795179918 -0.45230477440717781 0.12779761628989939 0.0012822363078256339 0.57859527819193501 0.60681459210799604 -0.25589478844324665 0.043033452028356997 -0.44141265989312839 0.044037016226959082 -0.31533837120875957 -0.046913231159236117 -0.22199515998196664 0.0872130530921571 0.15201471418343268 -0.34653535148394615 0.26221889157367012 0.36410501844996279 0.33677660959345651 0.15166235516856399 -0.19564775469094817 0.42039514966988195 -0.28346614066836001 0.21561419191556472 -0.15795141446015884 0.14418982481778123 0.22605864818732435 -0.10056346425084038 -0.29994981466852966 0.18804075324912592 0.34688090212513212 -0.0014664307423812948 0.028909156968370323 -0.36786405697554697 -0.050981172456783276 -0.35037828318135306 -0.10930790787672066;0.19434295710733407 -0.037281180196635434 0.26431219219923363 -0.20694259882767194 -0.47700524653082904 -0.13355950869150332 0.18684611847941732 0.028124979881639436 -0.10135523521195283 0.10787621437650928 0.28280061208037216 -0.39323259531619847 0.27478008277253879 -0.26478463196830204 0.052149190141174764 -0.039456778347190205 0.092678642800180844 -0.1279595674366853 -0.033025152956901692 0.16539096819034224 0.045120765458878324 0.23729408881284697 0.34855198599300202 -0.33968230516482739 -0.29548147171939371 -0.3567463298897644 -0.35386293001013669 -0.27139382307414478 -0.47107065309333285 -0.1820542256290105 -0.45453341221361931 -0.37144212670574178 0.28175450822632714 0.11945219259096529 0.038600500213752248 -0.055232298035708435 -0.091082266460959946 -0.28724049126748219 -0.14302504246550812;0.042589719985580171 -0.21593302771167266 0.33846969021966489 0.15267498511786737 -0.58264172127597935 -0.024314574086994778 -0.23607339991661247 0.29928356366948122 -0.28162291180245419 0.19558682245149434 0.20691805914367459 -0.21012621441388013 0.32210540645496005 -0.37070386092752111 0.26048826090789928 -0.27350864995690466 0.078173864658968348 0.18224672691731769 0.20291720069298499 -0.25411449981498047 0.26799388844985733 0.11041867714302872 0.089167899549970217 0.029287728098687942 -0.16491056381274749 -0.070124785261503272 -0.0059018889837416898 -0.33305845063938788 0.44135310996473587 0.024228516315745244 0.015853038048233459 -0.26864739026784507 -0.13549500556340399 0.2457308649788596 0.33599573870590738 -0.2777817316000068 -0.05581481610256505 -0.30392041045111984 0.13863029568483115;-0.43536270418776046 0.10206731751939778 0.33344604663143951 0.024150827163702988 0.012890666812494244 -0.12413713613492298 -0.25189927125584621 -0.25699019716136579 -0.094745967583716575 0.20888513108195003 0.026816261455419335 0.27232787942764947 0.091438298466111914 0.21135904712615181 0.20775772579600316 0.13804232454413753 -0.21711551167106413 0.12141811090620386 0.29072209541713839 -0.17478192595674746 0.32745048463328708 0.13734971632119519 -0.089173047354597329 -0.2485752575472496 -0.31940553206973099 -0.27229168423855898 -0.37112722564966721 0.25954901494407068 0.36739648018209753 0.41408041274323576 -0.36559286165349342 -0.32104845988010017 0.11507909737517702 0.033973496970585243 0.18222520094344624 0.2542875693540258 -0.32053854786355757 -0.33949087060397276 -0.34986220693304054];
  
  % Layer 2
  b2 = [0.83969087567925982;-0.42046946411299119;-0.8713323090606877;0.15198076119788134;0.4555572821522218;-0.20891443367156451];
  LW2_1 = [-0.29601574429537275 -0.68280634566420206 1.1645754087392963 -0.092470405664553751 0.20850461861775726 -0.52320558865125466 0.48918760547620632 0.62348059852826165 0.18399644530193243 -0.43824587837951479 1.0577282891700137 1.1842060783337365 0.89541185578654459 0.75615467729780506 -1.1478855232818188 -0.42654192735764079 -0.82547933277602226 0.40469794397026621 0.49528853585160343 -0.95663311118699446 0.70933707330747098 0.12542983048724263 -0.80424621132863816 0.49099321517343797 -0.47152625728924413 0.95620375018558901 -0.38347260240618636 1.1040567803934194 0.99380964045226772 -0.64323553392757071 1.4718636808044439 -0.54966600736930271 0.55733201747648164 0.87453459939593947 0.22287468543926683 -0.12051723797107185 0.82017443894397313 -0.76895846596896567 -0.12235145976648409 -0.92014202549138158 0.012075925184578361 0.53915854977268762 0.74586550804072449 0.4872798986283588 -0.021005917085704127 0.68243612624562511 0.83857343368105408 -0.98113904350405468 -0.25540688332504929 -0.99372528042085861 0.18742490923583111 -0.74887824855976337 0.23710476612492568 -0.26832921526205172 0.6200292356490702 0.7779403461009986 0.83903454857593995 0.28972076574264444 0.10925574452990459 0.51223416366419805;-0.25310604508530005 -1.1040289807308084 -0.97653574752824168 -0.44923206317784981 0.8091969274693418 0.77270966716856937 0.30497451445847651 0.074744593851952895 1.2574153466447846 0.69003969532171205 -0.6048728304904295 0.010321743589603295 -0.66175800751444214 -0.7668619807185828 0.86818419417586745 -0.76710292443578121 -0.60811296652749569 -0.046627726683764865 -0.99004258912432719 0.24588495547722994 0.074614058916773557 -0.61368566971949112 0.41309126967504034 1.6197985366289931 0.58694313536217968 -0.93010468782409239 -0.44754660115459138 -0.84472923707754366 0.11264525026027726 -0.39397698377177442 -0.43716794630977773 -1.5882415232519864 0.67872496888690259 1.7674748207917774 0.26108458556829661 -1.73514097667876 -0.7415298100724258 -0.37264664719613472 -1.0216982993483799 1.1164272855784561 0.52831683439543009 -0.53663619467322665 -0.12844517754456616 -0.72090749170322777 -0.54145302281918606 1.5638272715565849 0.58397822851720316 -0.20794249348941815 0.13402532906559661 -0.35864238012527822 0.19878719914124562 -0.20780906165902746 -0.35498337481065995 1.2591849909880883 0.8409309207030613 0.3735276727026588 -1.0593218590717157 0.86550624984669067 -0.56716959611958329 -0.83517136309063422;-0.32160343527341839 -0.33952018602213435 0.92053815906961567 -0.75917254248115018 -0.15583181389390044 -0.37040451324437751 0.93094540674416582 -1.2666390169953836 1.6791872889640285 -0.45238349280712337 0.54736116893070763 -0.55340322465654712 -0.24574446132698274 -0.12653737703014015 -0.080178776390518319 0.52819145925152777 0.67076075807809366 -0.57958829877021611 1.7444774176367808 0.28269147742321288 -0.72052811153226215 0.66914490616352817 1.1524611183971796 1.1016330022739025 0.53770544478585525 -1.1576465921037276 0.15910009482630666 -0.8938572607655727 -0.59045337738233505 -0.042235564549003825 0.50792509254400342 -0.48758766461634118 1.1743845664390735 0.044994849693114271 0.022912118346422487 0.9042021176084426 -1.1272198908867233 0.22751341672032679 0.15770300681807775 -2.3396061281690557 -0.27107164989961346 -1.2801698765029283 -1.5492226353130012 0.82508022062423636 -1.0982826330882163 0.34318216230633497 0.17947104061708594 -0.5042987679932015 -1.0207356723765466 0.41718271463788592 0.9857965387700609 0.97446190262458676 -0.42027556634185037 0.23620191696991666 -0.038852429461333028 1.2538418857281137 -0.72956701544006985 -0.8569208835259563 -0.75212112483392035 -0.0054366957326231809;-0.58042649529502843 -0.1673686065223422 0.13300842361532664 0.08016554928627076 0.39474709814109843 -1.0682939298072496 0.82566298378916358 0.63905008201060598 -0.77855074621049725 0.58696910895913146 1.1295606248124246 -0.65398739252672577 0.014211757090055149 -0.88343282394037159 -0.2309263225315128 -1.2400010849641503 0.1762404916481406 -1.25448206881091 0.88494825349350326 -0.19517179152798855 0.095933921459362317 0.5791562013740551 0.64013322737101408 0.1870377346562187 0.88800984240019964 -1.0410037424798173 1.1595164360146286 -0.76030851560102797 -0.45416524485331322 2.3496874579748588 -0.35566052218674099 1.3771329099870957 -0.94027372295474143 -1.7298786654595972 0.28562281889273261 1.2294773848948499 0.40554238680717597 0.034265689935965349 -0.75744974622494388 1.2360490372929969 0.50270892979952186 0.46658617495968979 -1.0593249330594154 -1.148269894975638 0.52614405017042776 0.56382722346971759 0.13015214344906209 -0.37044603496111539 0.98955368844424452 -0.38824957060088017 0.9387810434796483 0.54403929090819725 -0.52494496634690802 0.78194382065850765 0.88759262231640035 0.25591976436089292 -0.31864150239559541 0.14889019252491936 0.060885538667997806 0.62253963485699748;-0.069695438578640578 0.94285227071075417 0.82061246247147512 0.84712390341346111 -0.13345360477709289 0.21259095648389251 -1.3677197301943622 0.58473506179941126 -1.9916581728039935 -0.40002924585003663 -1.254882210314991 0.020022964231893526 0.23427331637822624 0.56118876738817036 0.19891888942664998 1.4869966268202897 -0.48636670988385017 0.24509664656333141 -1.7072819586547889 -1.5168836667304031 -0.75284148672972084 0.62459287195894997 -0.51977785720432013 -1.9278078389071716 0.74020989890463607 -0.31907448095104318 -0.53392364191585551 1.7787455142801625 1.1512097383149156 -0.399432817481368 0.093032624422032376 -0.69818338193356122 0.014450906540417169 -0.62227950447690106 0.093642413683499792 -1.2165189420511955 0.029134729346482022 0.50312779430311982 1.1324624710228663 1.0970673625189529 0.74460140547654829 0.29528797349325625 1.9564185119667181 0.92876223354324983 0.70421239157509719 -1.5257018341843644 -0.82573209546334692 -0.41922207919291044 0.030776647210644249 0.092827621656479883 0.28991242693497377 -0.25841359790938351 -1.0857474063731642 -0.8846948309918794 0.51135408528816328 -0.20033038500360739 0.28034066188909773 -0.56690536882292253 0.79722284271680366 -0.28200572370462584;-0.50738793419686212 -0.84224375693172604 -0.61204442377119561 -0.66819395204402188 -0.84295321398957745 -0.2193345760932498 -0.78541745249855777 0.20635972878641518 0.49684230549547737 -0.63091831615319072 -0.55196106520321275 -0.77567641494825912 -0.81095194792007952 0.25918479219159457 1.9173428802371117 0.25550144745921677 0.72931250323379804 -0.060848839848727396 0.24065234491586829 0.71947601136580974 0.055850524229222806 -0.54776710221393921 -0.23824383565717647 -0.14328932065410349 0.75447346658763192 -1.1266172059344108 -0.21515959633148773 -0.21021153893100678 -0.65143577406582953 -0.67368530289415829 -0.22605310775374449 0.67766306963326728 0.58878595577979032 -0.55184011272220901 -0.63450483270193392 -0.78755927885976296 0.56865350769630441 0.26119415789660028 0.76068905012422494 -0.57200559517313121 0.49939884021449288 1.0115990545159435 0.44424804876808355 0.82933293680268549 -0.78081329765208096 -1.1164863074708655 -1.1391719344198545 -0.33405126468807478 -0.19165878233524503 0.74727812894334433 0.76756890256720878 0.18358891542382441 -0.060591146996077656 0.037785968703237097 0.32563832011279786 0.049861903159651971 -0.69646859503072123 0.84080450703257792 0.76180206466555933 0.85539069765947806];
  
  % ===== SIMULATION ========
  
  % Dimensions
  Q = size(x1,2); % samples
  
  % Input 1
  xp1 = mapminmax_apply(x1,x1_step1_gain,x1_step1_xoffset,x1_step1_ymin);
  
  % Layer 1
  a1 = tansig_apply(repmat(b1,1,Q) + IW1_1*xp1);
  
  % Layer 2
  a2 = softmax_apply(repmat(b2,1,Q) + LW2_1*a1);
  
  % Output 1
  y1 = a2;
end

% ===== MODULE FUNCTIONS ========

% Map Minimum and Maximum Input Processing Function
function y = mapminmax_apply(x,settings_gain,settings_xoffset,settings_ymin)
  y = bsxfun(@minus,x,settings_xoffset);
  y = bsxfun(@times,y,settings_gain);
  y = bsxfun(@plus,y,settings_ymin);
end

% Competitive Soft Transfer Function
function a = softmax_apply(n)
  nmax = max(n,[],1);
  n = bsxfun(@minus,n,nmax);
  numer = exp(n);
  denom = sum(numer,1); 
  denom(denom == 0) = 1;
  a = bsxfun(@rdivide,numer,denom);
end

% Sigmoid Symmetric Transfer Function
function a = tansig_apply(n)
  a = 2 ./ (1 + exp(-2*n)) - 1;
end
